tree
version=v4
num_class=1
num_tree_per_iteration=1
label_index=0
max_feature_idx=13
objective=binary sigmoid:1
feature_names=text_score cnn_score gnn_score text_cnn_diff text_gnn_diff cnn_gnn_diff max_score min_score score_std has_https domain_length url_length suspicious_keywords_count domain_age_risk
feature_infos=[0:0.99980000000000002] [0:0.90000000000000002] [0:0.90000000000000002] [0:0.99980000000000002] [0:0.99980000000000002] [0:0.44409300000000007] [0:0.99980000000000002] [0:0.80000000000000004] [0:0.47131023988687348] [0:1] [3:34] [3:2490] [0:5] none
tree_sizes=546 560 562 562 562 559 564 563 563 566 566 566 568 567 570 567 565 569 567 568 570 570 566 564 568 464 466 466 465 466 558 559 561 556 644 675 673 676 670 572 551 552 551 570 567 571 571 570 570 570 469 468 468 468 465 656 757 654 673 672 568 571 674 566 570 660 1185 1077 565 569 636 959 840 860 863 569 784 782 782 662 671 674 672 675 676 565 448 654 654 653 966 863 971 965 961 561 561 559 668 670

Tree=0
num_leaves=4
num_cat=0
split_feature=6 3 4
split_gain=219.771 11.6983 1.21749
threshold=0.46590000000000004 0.19835000000000005 0.17340000000000003
decision_type=2 10 10
left_child=1 -1 -2
right_child=2 -3 -4
leaf_value=1.3500213193723556 1.6731911796873284 1.4980055207407703 1.7124579972806468
leaf_weight=4.4501039385795584 2.6970326900482204 2.6970326900482178 27.105178534984589
leaf_count=33 20 20 201
internal_value=1.64941 1.40226 1.70915
internal_weight=36.9493 7.14714 29.8022
internal_count=274 53 221
is_linear=0
shrinkage=1


Tree=1
num_leaves=4
num_cat=0
split_feature=6 8 7
split_gain=174.851 6.43271 1.22871
threshold=0.46590000000000004 0.13590592334405446 0.4209500000000001
decision_type=2 8 2
left_child=1 -1 -2
right_child=2 -3 -4
leaf_value=-0.23836999185225205 0.058613279849270686 -0.13258251999829432 0.018852216655965828
leaf_weight=5.3808780014514896 26.043947294354442 3.000858575105668 2.6429491490125647
leaf_count=33 201 20 20
internal_value=-0.00345731 -0.203095 0.055202
internal_weight=37.0686 8.38174 28.6869
internal_count=274 53 221
is_linear=0
shrinkage=0.05


Tree=2
num_leaves=4
num_cat=0
split_feature=6 3 3
split_gain=145.319 4.04226 1.3393
threshold=0.46590000000000004 0.30625000000000008 0.97165000000000012
decision_type=2 8 8
left_child=1 -1 -2
right_child=2 -3 -4
leaf_value=-0.19859570866733769 0.058139984679970273 -0.11638374995846482 0.016008547632995595
leaf_weight=6.1330001205205891 25.100641243159775 3.2543198019266137 2.5029541328549376
leaf_count=33 201 20 20
internal_value=-0.00313826 -0.172149 0.0545718
internal_weight=36.9909 9.38732 27.6036
internal_count=274 53 221
is_linear=0
shrinkage=0.05


Tree=3
num_leaves=4
num_cat=0
split_feature=6 3 5
split_gain=124.117 2.93147 1.41926
threshold=0.46590000000000004 0.19835000000000005 0.20000000000000007
decision_type=2 10 8
left_child=1 -1 -2
right_child=2 -3 -4
leaf_value=-0.17201332360216193 0.057640803914677644 -0.1034191377123887 0.013348788699952456
leaf_weight=6.7269299477338773 24.198537997901443 3.4817481338977814 2.3554609268903723
leaf_count=33 202 20 19
internal_value=-0.00288583 -0.150334 0.0539643
internal_weight=36.7627 10.2087 26.554
internal_count=274 53 221
is_linear=0
shrinkage=0.05


Tree=4
num_leaves=4
num_cat=0
split_feature=6 3 8
split_gain=108.001 2.32036 1.42579
threshold=0.46590000000000004 0.30625000000000008 0.46848181276212736
decision_type=2 8 8
left_child=1 -1 -2
right_child=2 -3 -4
leaf_value=-0.15279430537961738 0.05717884961957085 -0.092989383037762774 0.012469312957359095
leaf_weight=7.1953651160001728 23.218928426504139 3.6812763661146173 2.3178298622369757
leaf_count=33 202 20 19
internal_value=-0.00267876 -0.13404 0.0533803
internal_weight=36.4134 10.8766 25.5368
internal_count=274 53 221
is_linear=0
shrinkage=0.05


Tree=5
num_leaves=4
num_cat=0
split_feature=0 0 2
split_gain=75.8651 6.51646 1.50633
threshold=0.46550000000000008 0.17335000000000003 0.20000000000000004
decision_type=2 2 8
left_child=1 -1 -2
right_child=2 -3 -4
leaf_value=-0.13713022921029885 0.056834671912191916 -0.052315361759133608 0.010450972069488543
leaf_weight=6.4277238845825178 23.735510878264908 4.1172238290309906 2.2345180660486212
leaf_count=28 215 24 19
internal_value=0.0070547 -0.105287 0.0530909
internal_weight=36.515 10.5449 25.97
internal_count=286 52 234
is_linear=0
shrinkage=0.05


Tree=6
num_leaves=4
num_cat=0
split_feature=6 3 4
split_gain=76.492 1.49301 1.21577
threshold=0.46590000000000004 0.97165000000000012 0.016550000000000006
decision_type=2 8 10
left_child=2 -2 -1
right_child=1 -3 -4
leaf_value=-0.12664567010202507 0.056454338081316995 0.010444850975636388 -0.080565542452581407
leaf_weight=5.9200255125761014 23.508794404566292 2.2548112869262686 4.1586123555898666
leaf_count=25 221 20 20
internal_value=0.00686955 0.0526769 -0.109102
internal_weight=35.8422 25.7636 10.0786
internal_count=286 241 45
is_linear=0
shrinkage=0.05


Tree=7
num_leaves=4
num_cat=0
split_feature=6 4 4
split_gain=69.0401 1.5858 1.09655
threshold=0.46590000000000004 0.99380000000000013 0.016550000000000006
decision_type=2 8 10
left_child=2 -2 -1
right_child=1 -3 -4
leaf_value=-0.11741780078132413 0.05602910149146248 0.0072761132376915217 -0.074373371789565768
leaf_weight=6.0696509480476362 22.661991417407993 2.0927442014217368 4.284490093588829
leaf_count=25 223 18 20
internal_value=0.00669639 0.0521546 -0.100966
internal_weight=35.1089 24.7547 10.3541
internal_count=286 241 45
is_linear=0
shrinkage=0.05


Tree=8
num_leaves=4
num_cat=0
split_feature=6 2 4
split_gain=62.6679 1.60639 1.02394
threshold=0.46590000000000004 0.75000000000000011 0.016550000000000006
decision_type=2 8 10
left_child=2 -2 -1
right_child=1 -3 -4
leaf_value=-0.10982686857769584 0.0556691367922355 0.0062191917062533854 -0.068978205651646057
leaf_weight=6.1687949746847135 21.72538581490517 2.0544461682438842 4.3934737741947174
leaf_count=25 223 18 20
internal_value=0.0065317 0.0516503 -0.0941107
internal_weight=34.3421 23.7798 10.5623
internal_count=286 241 45
is_linear=0
shrinkage=0.05


Tree=9
num_leaves=4
num_cat=0
split_feature=6 1 4
split_gain=57.144 1.74048 0.980977
threshold=0.46590000000000004 0.52731150000000004 0.016550000000000006
decision_type=2 8 10
left_child=2 -2 -1
right_child=1 -3 -4
leaf_value=-0.10347418657209861 0.055370710639918289 0.0029387738481776726 -0.064225309497989283
leaf_weight=6.2246410995721799 20.89639720320702 1.9437310025095929 4.4875188618898392
leaf_count=25 223 18 20
internal_value=0.00637459 0.0511589 -0.0882406
internal_weight=33.5523 22.8401 10.7122
internal_count=286 241 45
is_linear=0
shrinkage=0.05


Tree=10
num_leaves=4
num_cat=0
split_feature=6 4 6
split_gain=47.406 3.86037 2.62938
threshold=0.46590000000000004 0.98475000000000013 0.28830000000000006
decision_type=2 8 2
left_child=2 -2 -1
right_child=1 -3 -4
leaf_value=-0.099199698374680609 0.054978191087700169 -0.016209821210514164 -0.045223962032592054
leaf_weight=6.7336284816265088 19.125360891222957 1.9532527327537526 4.4581598341464996
leaf_count=27 214 18 20
internal_value=0.00385107 0.0481001 -0.0787326
internal_weight=32.2704 21.0786 11.1918
internal_count=279 232 47
is_linear=0
shrinkage=0.05


Tree=11
num_leaves=4
num_cat=0
split_feature=6 3 6
split_gain=43.4546 4.29291 2.46837
threshold=0.46590000000000004 0.97930000000000017 0.28830000000000006
decision_type=2 8 2
left_child=2 -2 -1
right_child=1 -3 -4
leaf_value=-0.094437048738842552 0.054735464287069872 -0.02385536604234155 -0.042411291888998684
leaf_weight=6.7246918678283709 18.506007596850399 1.7675696089863766 4.5210700184106827
leaf_count=27 215 17 20
internal_value=0.00374352 0.0475546 -0.0745203
internal_weight=31.5193 20.2736 11.2458
internal_count=279 232 47
is_linear=0
shrinkage=0.05


Tree=12
num_leaves=4
num_cat=0
split_feature=4 3 6
split_gain=40.3725 7.06024 2.62337
threshold=0.46550000000000008 0.0066000000000000008 0.44555000000000006
decision_type=10 10 2
left_child=1 -1 -3
right_child=-2 2 -4
leaf_value=-0.10112578937740167 0.05460819045001928 -0.053003376044790197 0.0042507306639442055
leaf_weight=5.9428470358252543 17.172783099114895 4.2355615645647049 3.4119423106312752
leaf_count=26 208 18 27
internal_value=0.00363789 -0.0603315 -0.0270889
internal_weight=30.7631 13.5904 7.6475
internal_count=279 71 45
is_linear=0
shrinkage=0.05


Tree=13
num_leaves=4
num_cat=0
split_feature=6 4 1
split_gain=37.5587 9.10902 0.358871
threshold=0.48745000000000011 0.36456650000000007 0.52731150000000004
decision_type=2 10 8
left_child=1 -1 -2
right_child=2 -3 -4
leaf_value=-0.094970970374038552 0.054109024234785225 -0.0070692067154052149 0.021228001715149002
leaf_weight=7.7326119318604487 15.705586172640325 4.9599592834711075 1.613048531115054
leaf_count=33 199 31 16
internal_value=0.00355179 -0.0613356 0.051473
internal_weight=30.0112 12.6926 17.3186
internal_count=279 64 215
is_linear=0
shrinkage=0.05


Tree=14
num_leaves=4
num_cat=0
split_feature=4 3 6
split_gain=35.0219 6.01048 2.09577
threshold=0.46550000000000008 0.0066000000000000008 0.44555000000000006
decision_type=10 10 2
left_child=1 -1 -3
right_child=-2 2 -4
leaf_value=-0.093424724175232357 0.054073602016116953 -0.047597943781665555 0.0035096367648648494
leaf_weight=5.8374462202191371 15.766126930713652 4.2775531113147736 3.3660249263048172
leaf_count=26 208 18 27
internal_value=0.00347687 -0.0552906 -0.0246912
internal_weight=29.2472 13.481 7.64358
internal_count=279 71 45
is_linear=0
shrinkage=0.05


Tree=15
num_leaves=4
num_cat=0
split_feature=6 1 4
split_gain=43.2295 5.10599 0.314665
threshold=0.46590000000000004 0.5514055000000001 0.17340000000000003
decision_type=2 8 10
left_child=2 -2 -1
right_child=1 -3 -4
leaf_value=-0.08255480316122886 0.053790536334525463 -0.040786507052040372 -0.05640173366542655
leaf_weight=8.1388361603021639 16.583216555416588 1.4274414181709278 4.6508967578411093
leaf_count=34 226 13 20
internal_value=-0.00381918 0.0458349 -0.0739437
internal_weight=30.8004 18.0107 12.7897
internal_count=293 239 54
is_linear=0
shrinkage=0.05


Tree=16
num_leaves=4
num_cat=0
split_feature=6 3 1
split_gain=39.9323 5.71356 0.43908
threshold=0.48745000000000011 0.38375000000000009 0.54180600000000012
decision_type=2 10 8
left_child=1 -1 -2
right_child=2 -3 -4
leaf_value=-0.08711777540832244 0.053422244858886948 -0.018233761984715345 0.016611744920916431
leaf_weight=9.4082277193665522 14.414190120995041 4.7963058948516837 1.4098097234964377
leaf_count=41 207 31 14
internal_value=-0.00372247 -0.064498 0.0505816
internal_weight=30.0285 14.2045 15.824
internal_count=293 72 221
is_linear=0
shrinkage=0.05


Tree=17
num_leaves=4
num_cat=0
split_feature=6 2 4
split_gain=36.9809 4.88739 0.366464
threshold=0.46590000000000004 0.8898640000000001 0.17340000000000003
decision_type=2 8 10
left_child=2 -2 -1
right_child=1 -3 -4
leaf_value=-0.077277090263478468 0.053296274607495898 -0.039285762489192494 -0.051117545144321902
leaf_weight=7.8244116604328173 15.265335522592069 1.4362677559256543 4.7335282117128372
leaf_count=34 227 12 20
internal_value=-0.00360673 0.0448506 -0.0682934
internal_weight=29.2595 16.7016 12.5579
internal_count=293 239 54
is_linear=0
shrinkage=0.05


Tree=18
num_leaves=4
num_cat=0
split_feature=6 3 10
split_gain=34.4537 5.23404 0.505216
threshold=0.48745000000000011 0.38375000000000009 16.500000000000004
decision_type=2 10 2
left_child=1 -1 -2
right_child=2 -3 -4
leaf_value=-0.08195992230828511 0.05302381467407679 -0.015840576580478386 0.013451614766251516
leaf_weight=9.1036823242902774 13.244988590478895 4.8271260336041442 1.3157623559236515
leaf_count=41 207 31 14
internal_value=-0.00352325 -0.0596816 0.0499051
internal_weight=28.4916 13.9308 14.5608
internal_count=293 72 221
is_linear=0
shrinkage=0.05


Tree=19
num_leaves=4
num_cat=0
split_feature=6 8 2
split_gain=31.9615 4.96525 0.536859
threshold=0.48745000000000011 0.18189547847106696 0.82514050000000017
decision_type=2 10 8
left_child=1 -1 -2
right_child=2 -3 -4
leaf_value=-0.079484250183123273 0.052739748129659626 -0.014980199460307873 0.011157202981259601
leaf_weight=8.9254925698041934 12.730190742760893 4.8541763201355925 1.2247069329023368
leaf_count=41 209 31 12
internal_value=-0.0034187 -0.0573932 0.0495515
internal_weight=27.7346 13.7797 13.9549
internal_count=293 72 221
is_linear=0
shrinkage=0.05


Tree=20
num_leaves=4
num_cat=0
split_feature=4 3 0
split_gain=25.3243 4.38571 2.59952
threshold=0.46550000000000008 0.013680999999999973 0.39600000000000007
decision_type=10 10 2
left_child=1 -1 -3
right_child=-2 2 -4
leaf_value=-0.079758734372296886 0.052916557489091236 -0.053805122521911108 0.0034320570289022214
leaf_weight=5.6168294996023196 12.285895701497791 3.2521918416023254 4.4701513573527336
leaf_count=28 208 14 32
internal_value=0.00115731 -0.0461819 -0.0204133
internal_weight=25.6251 13.3392 7.72234
internal_count=282 74 46
is_linear=0
shrinkage=0.05


Tree=21
num_leaves=4
num_cat=0
split_feature=4 3 0
split_gain=23.6522 4.15689 2.38663
threshold=0.46550000000000008 0.013680999999999973 0.39600000000000007
decision_type=10 10 2
left_child=1 -1 -3
right_child=-2 2 -4
leaf_value=-0.077751740862415861 0.052696628519330352 -0.051708274428324874 0.0032692691420031514
leaf_weight=5.4797908961772936 11.734657164663075 3.2197525054216385 4.4632610604166985
leaf_count=28 208 14 32
internal_value=0.00112283 -0.0445289 -0.0194963
internal_weight=24.8975 13.1628 7.68301
internal_count=282 74 46
is_linear=0
shrinkage=0.05


Tree=22
num_leaves=4
num_cat=0
split_feature=4 0 11
split_gain=22.1039 4.02807 1.33537
threshold=0.46550000000000008 0.34340000000000009 72.500000000000014
decision_type=10 2 2
left_child=1 -1 -3
right_child=-2 2 -4
leaf_value=-0.069225829655052293 0.052484320657671307 0.0057225861802941078 -0.04029967607953111
leaf_weight=6.8449088484048861 11.206762135028837 3.6841397807002068 2.4529205411672592
leaf_count=34 208 28 12
internal_value=0.00108832 -0.0429594 -0.0122216
internal_weight=24.1887 12.982 6.13706
internal_count=282 74 40
is_linear=0
shrinkage=0.05


Tree=23
num_leaves=4
num_cat=0
split_feature=4 0 11
split_gain=20.6648 3.8803 1.19595
threshold=0.46550000000000008 0.34340000000000009 72.500000000000014
decision_type=10 2 2
left_child=1 -1 -3
right_child=-2 2 -4
leaf_value=-0.06784125939238847 0.052278988352203917 0.0054577602797591411 -0.037923497364710984
leaf_weight=6.6425516754388827 10.701399471610783 3.6748553812503815 2.4817764759063721
leaf_count=34 208 28 12
internal_value=0.0010574 -0.0414546 -0.011557
internal_weight=23.5006 12.7992 6.15663
internal_count=282 74 40
is_linear=0
shrinkage=0.05


Tree=24
num_leaves=4
num_cat=0
split_feature=4 3 6
split_gain=19.3306 3.977 1.08035
threshold=0.46550000000000008 0.013680999999999973 0.44555000000000006
decision_type=10 10 2
left_child=1 -1 -3
right_child=-2 2 -4
leaf_value=-0.074201743415964819 0.052080034903369189 -0.032176998850437455 0.0045297269972573639
leaf_weight=5.0559795200824755 10.217766877263783 4.2960868924856186 3.2602791786193848
leaf_count=28 208 19 27
internal_value=0.00102639 -0.0400252 -0.0158341
internal_weight=22.8301 12.6123 7.55637
internal_count=282 74 46
is_linear=0
shrinkage=0.05


Tree=25
num_leaves=3
num_cat=0
split_feature=6 4
split_gain=23.9105 3.00263
threshold=0.48745000000000011 0.36456650000000007
decision_type=2 10
left_child=1 -1
right_child=-2 -3
leaf_value=-0.069149574888462295 0.052161890315557617 -0.01595856304342284
leaf_weight=7.7813036441802996 10.423130895942448 4.5317060649394989
leaf_count=42 210 28
internal_value=-0.00306522 -0.0502621
internal_weight=22.7361 12.313
internal_count=280 70
is_linear=0
shrinkage=0.05


Tree=26
num_leaves=3
num_cat=0
split_feature=6 4
split_gain=22.3324 2.91894
threshold=0.48745000000000011 0.36456650000000007
decision_type=2 10
left_child=1 -1
right_child=-2 -3
leaf_value=-0.067743072603112547 0.051962050638403083 -0.015114157732979198
leaf_weight=7.5535882115364092 9.9523351080715639 4.5507249236106873
leaf_count=42 210 28
internal_value=-0.00299817 -0.0486524
internal_weight=22.0566 12.1043
internal_count=280 70
is_linear=0
shrinkage=0.05


Tree=27
num_leaves=3
num_cat=0
split_feature=6 4
split_gain=20.8684 2.83793
threshold=0.48745000000000011 0.36456650000000007
decision_type=2 10
left_child=1 -1
right_child=-2 -3
leaf_value=-0.066415329596451661 0.051768144161467293 -0.014318741372389546
leaf_weight=7.3271281123161334 9.5018864721059781 4.5684317201375961
leaf_count=42 210 28
internal_value=-0.00293288 -0.0471109
internal_weight=21.3974 11.8956
internal_count=280 70
is_linear=0
shrinkage=0.05


Tree=28
num_leaves=3
num_cat=0
split_feature=6 4
split_gain=19.5085 2.75897
threshold=0.48745000000000011 0.36456650000000007
decision_type=2 10
left_child=1 -1
right_child=-2 -3
leaf_value=-0.065156066167067747 0.051579630352093522 -0.013568919455339555
leaf_weight=7.102940499782564 9.0710336565971357 4.5849295854568481
leaf_count=42 210 28
internal_value=-0.00286909 -0.0456304
internal_weight=20.7589 11.6879
internal_count=280 70
is_linear=0
shrinkage=0.05


Tree=29
num_leaves=3
num_cat=0
split_feature=6 4
split_gain=18.2441 2.68157
threshold=0.48745000000000011 0.36456650000000007
decision_type=2 10
left_child=1 -1
right_child=-2 -3
leaf_value=-0.063956382687842164 0.051395975519683834 -0.012861607516077534
leaf_weight=6.8818707466125506 8.6590398438274843 4.6003125756978989
leaf_count=42 210 28
internal_value=-0.00280662 -0.0442049
internal_weight=20.1412 11.4822
internal_count=280 70
is_linear=0
shrinkage=0.05


Tree=30
num_leaves=4
num_cat=0
split_feature=6 1 3
split_gain=16.0048 3.20209 0.141945
threshold=0.46590000000000004 0.75000000000000011 0.10415000000000006
decision_type=2 8 10
left_child=2 -2 -1
right_child=1 -3 -4
leaf_value=-0.059451173499444732 0.051619011021580431 -0.043406449777714004 -0.036297737257674594
leaf_weight=4.799452945590021 9.1115384064614737 0.84786605089902956 3.4863357245922089
leaf_count=32 221 8 15
internal_value=0 0.0426812 -0.0508544
internal_weight=18.2452 9.9594 8.28579
internal_count=276 229 47
is_linear=0
shrinkage=0.05


Tree=31
num_leaves=4
num_cat=0
split_feature=6 1 3
split_gain=14.9266 3.05102 0.188211
threshold=0.46590000000000004 0.75000000000000011 0.10415000000000006
decision_type=2 8 10
left_child=2 -2 -1
right_child=1 -3 -4
leaf_value=-0.058712183171776872 0.051436164752733583 -0.04045979951098147 -0.034483825075402055
leaf_weight=4.6226116716861743 8.6975455991923774 0.87080354988575059 3.4913571625947952
leaf_count=32 221 8 15
internal_value=0 0.0422237 -0.0494424
internal_weight=17.6823 9.56835 8.11397
internal_count=276 229 47
is_linear=0
shrinkage=0.05


Tree=32
num_leaves=4
num_cat=0
split_feature=6 3 3
split_gain=13.9232 3.01033 0.231409
threshold=0.46590000000000004 0.99380000000000013 0.10415000000000006
decision_type=2 8 10
left_child=2 -2 -1
right_child=1 -3 -4
leaf_value=-0.058014199011521654 0.051339028117383362 -0.039855453703021564 -0.032779416284887765
leaf_weight=4.4498981237411526 8.3168747499585116 0.87736245989799577 3.4943629503250122
leaf_count=32 218 11 15
internal_value=0 0.0417636 -0.0480815
internal_weight=17.1385 9.19424 7.94426
internal_count=276 229 47
is_linear=0
shrinkage=0.05


Tree=33
num_leaves=4
num_cat=0
split_feature=6 1 0
split_gain=12.9874 2.87701 0.502339
threshold=0.46590000000000004 0.75000000000000011 0.34340000000000009
decision_type=2 8 2
left_child=2 -2 -1
right_child=1 -3 -4
leaf_value=-0.058354177059959371 0.051095746763018202 -0.037835910513189991 -0.026647984990647685
leaf_weight=4.6565918177366283 7.951423212885854 0.88642782717943269 3.1205560863018036
leaf_count=34 221 8 13
internal_value=0 0.041293 -0.0467667
internal_weight=16.615 8.83785 7.77715
internal_count=276 229 47
is_linear=0
shrinkage=0.05


Tree=34
num_leaves=5
num_cat=0
split_feature=6 3 6 11
split_gain=12.1916 4.83068 0.948826 0.366059
threshold=0.44555000000000006 1.0000000180025095e-35 0.46590000000000004 41.500000000000007
decision_type=2 10 2 2
left_child=3 -2 -3 -1
right_child=1 2 -4 -5
leaf_value=-0.066425671562428776 -0.079998525397136283 0 0.051066592999414989 -0.033022031895152286
leaf_weight=3.6810329407453564 0.72834369540214439 1.2034903764724711 7.9433017708361149 2.543972983956337
leaf_count=24 4 5 226 17
internal_value=0 0.0344343 0.0448537 -0.054303
internal_weight=16.1001 9.87514 9.14679 6.22501
internal_count=276 235 231 41
is_linear=0
shrinkage=0.05


Tree=35
num_leaves=5
num_cat=0
split_feature=6 4 3 11
split_gain=10.1039 4.38915 0.553069 0.477345
threshold=0.51304850000000013 0.36456650000000007 0.0066000000000000008 48.500000000000007
decision_type=2 10 10 2
left_child=1 2 -1 -3
right_child=-2 3 -4 -5
leaf_value=-0.071709854054214303 0.050583526243960057 0.022030532220594038 -0.033495136927553674 -0.0068565115560452888
leaf_weight=3.3499337583780306 6.408887453377246 2.2698801085352898 2.675531730055809 3.1727119535207748
leaf_count=26 200 18 21 27
internal_value=0.000481269 -0.0272812 -0.0563812 0.00446909
internal_weight=17.8769 11.4681 6.02547 5.44259
internal_count=292 92 47 45
is_linear=0
shrinkage=0.05


Tree=36
num_leaves=5
num_cat=0
split_feature=4 3 3 6
split_gain=9.51016 2.87978 1.53853 6.30946
threshold=0.46550000000000008 1.0000000180025095e-35 0.43690000000000007 0.38375000000000009
decision_type=10 10 10 2
left_child=1 -1 3 -3
right_child=-2 2 -4 -5
leaf_value=-0.065394275275712482 0.05069636525230347 -0.044745328871837638 -0.037416785812053294 0.064214683856295904
leaf_weight=3.2672221958637264 6.0797385554760686 2.6594405323266965 2.9786128103733063 2.4417471848428249
leaf_count=26 208 17 12 29
internal_value=0.000436296 -0.0262639 -0.0092235 0.00668029
internal_weight=17.4268 11.347 8.0798 5.10119
internal_count=292 84 58 46
is_linear=0
shrinkage=0.05


Tree=37
num_leaves=5
num_cat=0
split_feature=4 3 6 4
split_gain=8.95485 2.71251 1.91853 1.76277
threshold=0.46550000000000008 1.0000000180025095e-35 0.38375000000000009 0.43905000000000005
decision_type=10 10 2 10
left_child=1 -1 -3 -4
right_child=-2 2 3 -5
leaf_value=-0.064208971432178477 0.050524965114952997 -0.043609726160849134 0.034923339574445648 -0.021093034310301739
leaf_weight=3.1656025275588053 5.802684621885418 2.5964771956205368 2.8049853183329105 2.5333046615123749
leaf_count=26 208 17 30 11
internal_value=0.000403853 -0.0255676 -0.00892188 0.00752211
internal_weight=16.9031 11.1004 7.93477 5.33829
internal_count=292 84 58 41
is_linear=0
shrinkage=0.05


Tree=38
num_leaves=5
num_cat=0
split_feature=6 4 3 11
split_gain=8.50022 3.843 0.475215 0.398146
threshold=0.51304850000000013 0.36456650000000007 0.0066000000000000008 48.500000000000007
decision_type=2 10 10 2
left_child=1 2 -1 -3
right_child=-2 3 -4 -5
leaf_value=-0.069461176374512032 0.050187015429928719 0.020533372506666259 -0.031804707235225459 -0.0060144557599785603
leaf_weight=3.0046486556530017 5.5957661364227524 2.21966652572155 2.4934312105178833 3.1234244480729103
leaf_count=26 200 18 21 27
internal_value=0.00036047 -0.0251246 -0.05415 0.00427026
internal_weight=16.4369 10.8412 5.49808 5.34309
internal_count=292 92 47 45
is_linear=0
shrinkage=0.05


Tree=39
num_leaves=4
num_cat=0
split_feature=4 9 0
split_gain=8.03535 2.51171 0.461915
threshold=0.46550000000000008 1.0000000180025095e-35 0.34340000000000009
decision_type=10 2 2
left_child=1 -1 -3
right_child=-2 2 -4
leaf_value=0.011722855604796517 0.050244713335909102 -0.055303980238718936 -0.025489785387130766
leaf_weight=3.1528246290981787 5.3289560619741669 3.3591026365756989 4.1966611407697201
leaf_count=32 208 30 22
internal_value=0.000315142 -0.0243039 -0.0399468
internal_weight=16.0375 10.7086 7.55576
internal_count=292 84 52
is_linear=0
shrinkage=0.05


Tree=40
num_leaves=4
num_cat=0
split_feature=6 1 0
split_gain=8.08592 3.60775 1.32642
threshold=0.46590000000000004 inf 0.34340000000000009
decision_type=2 8 2
left_child=2 -2 -1
right_child=1 -3 -4
leaf_value=-0.05533489737799701 0.050537812078237578 -0.067233075552962526 -0.011468314477123952
leaf_weight=4.0050211995840073 6.2846052963286638 0.60286618769168843 3.6784571409225464
leaf_count=37 227 3 15
internal_value=-5.13494e-06 0.038699 -0.0353934
internal_weight=14.5709 6.88747 7.68348
internal_count=282 230 52
is_linear=0
shrinkage=0.05


Tree=41
num_leaves=4
num_cat=0
split_feature=6 1 0
split_gain=7.54812 3.39736 1.30838
threshold=0.46590000000000004 inf 0.34340000000000009
decision_type=2 8 2
left_child=2 -2 -1
right_child=1 -3 -4
leaf_value=-0.054825712169028762 0.050366640928771182 -0.063192841112422363 -0.010903218265443458
leaf_weight=3.8450870215892792 5.998240165412426 0.61539702117443074 3.6807709187269211
leaf_count=37 227 3 15
internal_value=-4.03718e-05 0.0382713 -0.0344243
internal_weight=14.1395 6.61364 7.52586
internal_count=282 230 52
is_linear=0
shrinkage=0.05


Tree=42
num_leaves=4
num_cat=0
split_feature=6 1 0
split_gain=7.04572 3.20477 1.2891
threshold=0.46590000000000004 inf 0.34340000000000009
decision_type=2 8 2
left_child=2 -2 -1
right_child=1 -3 -4
leaf_value=-0.054336262998051568 0.050196595435699223 -0.059525755825701535 -0.010366883418167912
leaf_weight=3.6905522421002388 5.724877018481493 0.62650577723979939 3.6827572584152222
leaf_count=37 227 3 15
internal_value=-7.49859e-05 0.0378435 -0.0334764
internal_weight=13.7247 6.35138 7.37331
internal_count=282 230 52
is_linear=0
shrinkage=0.05


Tree=43
num_leaves=4
num_cat=0
split_feature=4 0 3
split_gain=6.67366 1.83595 5.04968
threshold=0.46550000000000008 0.34340000000000009 0.44125000000000009
decision_type=10 2 8
left_child=1 -1 -3
right_child=-2 2 -4
leaf_value=-0.052374999270357672 0.049741956594472891 0.040161729595820282 -0.054700514522299765
leaf_weight=3.5929086059331876 4.3420592974871406 2.7655732464045286 2.6255785226821899
leaf_count=38 203 30 11
internal_value=-0.000109007 -0.0250351 -0.00528198
internal_weight=13.3261 8.98406 5.39115
internal_count=282 79 41
is_linear=0
shrinkage=0.05


Tree=44
num_leaves=4
num_cat=0
split_feature=4 0 3
split_gain=6.27434 1.76813 4.58978
threshold=0.46550000000000008 0.34340000000000009 0.44125000000000009
decision_type=10 2 8
left_child=1 -1 -3
right_child=-2 2 -4
leaf_value=-0.051805149347793046 0.049560336944246774 0.0388247796450501 -0.051847823982510803
leaf_weight=3.4554005563259107 4.1454095970839271 2.7223289143294096 2.6367295831441879
leaf_count=38 203 30 11
internal_value=-8.43272e-05 -0.024287 -0.00500401
internal_weight=12.9599 8.81446 5.35906
internal_count=282 79 41
is_linear=0
shrinkage=0.05


Tree=45
num_leaves=4
num_cat=0
split_feature=4 9 3
split_gain=7.97279 2.26452 0.143147
threshold=0.46550000000000008 1.0000000180025095e-35 0.43690000000000007
decision_type=10 2 8
left_child=1 -1 -3
right_child=-2 2 -4
leaf_value=0.0033976691847838686 0.049456719539318947 -0.036916167258206449 -0.06335193823680331
leaf_weight=2.6379916034638864 4.1618161890655765 3.4802389089018106 2.6765517890453339
leaf_count=31 214 38 11
internal_value=-0.0063562 -0.0335889 -0.0500366
internal_weight=12.9566 8.79478 6.15679
internal_count=294 80 49
is_linear=0
shrinkage=0.05


Tree=46
num_leaves=4
num_cat=0
split_feature=4 9 3
split_gain=7.42888 2.09614 0.0917605
threshold=0.46550000000000008 1.0000000180025095e-35 0.43690000000000007
decision_type=10 2 8
left_child=1 -1 -3
right_child=-2 2 -4
leaf_value=0.0032347863216696244 0.04927709563163199 -0.03583700381149052 -0.060310736399358501
leaf_weight=2.637335227802394 3.9732674472033986 3.4105988573282957 2.6759781837463379
leaf_count=31 214 38 11
internal_value=-0.00614644 -0.0322279 -0.0482061
internal_weight=12.6972 8.72391 6.08658
internal_count=294 80 49
is_linear=0
shrinkage=0.05


Tree=47
num_leaves=4
num_cat=0
split_feature=6 3 11
split_gain=7.20241 2.37958 0.294112
threshold=0.51304850000000013 0.38375000000000009 96.500000000000014
decision_type=2 10 2
left_child=1 -1 -3
right_child=-2 2 -4
leaf_value=-0.056609858863278961 0.049515570169988914 0.0091145859119776528 -0.016430037233589375
leaf_weight=4.4742776546627265 3.8590186834335336 2.0229125842452049 2.0892126876860857
leaf_count=48 202 23 21
internal_value=-0.00594125 -0.0317241 -0.00275855
internal_weight=12.4454 8.5864 4.11213
internal_count=294 92 44
is_linear=0
shrinkage=0.05


Tree=48
num_leaves=4
num_cat=0
split_feature=6 3 11
split_gain=6.73928 2.26711 0.267052
threshold=0.51304850000000013 0.38375000000000009 96.500000000000014
decision_type=2 10 2
left_child=1 -1 -3
right_child=-2 2 -4
leaf_value=-0.055533168620108833 0.049320447027502282 0.0086985690854143767 -0.015624067395542153
leaf_weight=4.3383934348821622 3.6853574980050334 2.0185737516731024 2.092215109616518
leaf_count=48 202 23 21
internal_value=-0.00577098 -0.0306814 -0.00257024
internal_weight=12.1345 8.44918 4.11079
internal_count=294 92 44
is_linear=0
shrinkage=0.05


Tree=49
num_leaves=4
num_cat=0
split_feature=6 3 11
split_gain=6.30613 2.1572 0.242515
threshold=0.51304850000000013 0.38375000000000009 96.500000000000014
decision_type=2 10 2
left_child=1 -1 -3
right_child=-2 2 -4
leaf_value=-0.054447438592138714 0.049123073880667167 0.0083009658178973857 -0.014859545438038767
leaf_weight=4.2089700549840909 3.5197455286979684 2.0143965948373079 2.0949388183653355
leaf_count=48 202 23 21
internal_value=-0.00560088 -0.0296588 -0.00239094
internal_weight=11.8381 8.31831 4.10934
internal_count=294 92 44
is_linear=0
shrinkage=0.05


Tree=50
num_leaves=3
num_cat=0
split_feature=3 6
split_gain=4.66423 3.51451
threshold=1.0000000180025095e-35 0.46590000000000004
decision_type=10 2
left_child=-1 -2
right_child=1 -3
leaf_value=-0.064051865784933021 -0.0098033877400327263 0.049710761442177898
leaf_weight=2.0163830406963834 5.1007678881287557 4.4932142663747072
leaf_count=24 30 235
internal_value=0.00271458 0.0177788
internal_weight=11.6104 9.59398
internal_count=289 265
is_linear=0
shrinkage=0.05


Tree=51
num_leaves=3
num_cat=0
split_feature=3 6
split_gain=4.37485 3.35452
threshold=1.0000000180025095e-35 0.46590000000000004
decision_type=10 2
left_child=-1 -2
right_child=1 -3
leaf_value=-0.063298574214441544 -0.0093431482318317542 0.049527262298347474
leaf_weight=1.9414548873901374 5.0896459817886335 4.2898781662806869
leaf_count=24 30 235
internal_value=0.00260134 0.0172932
internal_weight=11.321 9.37952
internal_count=289 265
is_linear=0
shrinkage=0.05


Tree=52
num_leaves=3
num_cat=0
split_feature=3 6
split_gain=4.10314 3.20201
threshold=1.0000000180025095e-35 0.46590000000000004
decision_type=10 2
left_child=-1 -2
right_child=1 -3
leaf_value=-0.062549316642914451 -0.0089038433036031425 0.049342769322751341
leaf_weight=1.8695023171603686 5.0789385959506017 4.0958989597856998
leaf_count=24 30 235
internal_value=0.0024886 0.0168116
internal_weight=11.0443 9.17484
internal_count=289 265
is_linear=0
shrinkage=0.05


Tree=53
num_leaves=3
num_cat=0
split_feature=3 6
split_gain=3.84806 3.05658
threshold=1.0000000180025095e-35 0.46590000000000004
decision_type=10 2
left_child=-1 -2
right_child=1 -3
leaf_value=-0.061804100441475884 -0.0084845667517368419 0.049156984390304047
leaf_weight=1.8004044257104403 5.0686371996998769 3.9108651364222169
leaf_count=24 30 235
internal_value=0.00237645 0.0163344
internal_weight=10.7799 8.9795
internal_count=289 265
is_linear=0
shrinkage=0.05


Tree=54
num_leaves=3
num_cat=0
split_feature=3 6
split_gain=3.60864 2.91782
threshold=1.0000000180025095e-35 0.46590000000000004
decision_type=10 2
left_child=-1 -2
right_child=1 -3
leaf_value=-0.061062998383520507 -0.0080844446273706499 0.048969606418935212
leaf_weight=1.734043329954148 5.0587325617670995 3.7343820007517934
leaf_count=24 30 235
internal_value=0.002265 0.015862
internal_weight=10.5272 8.79311
internal_count=289 265
is_linear=0
shrinkage=0.05


Tree=55
num_leaves=5
num_cat=0
split_feature=4 9 0 1
split_gain=3.66628 2.28198 3.29428 1.34262
threshold=0.32494050000000002 1.0000000180025095e-35 0.46550000000000008 1.0000000180025095e-35
decision_type=10 2 2 10
left_child=3 -2 -3 -1
right_child=1 2 -4 -5
leaf_value=-0.059512226773339366 0.070352630421893686 -0.030160714588031948 0.049764388829857398 0
leaf_weight=2.2742922343313698 1.8670435519888995 2.720649715512991 2.246217792853713 1.5098927915096281
leaf_count=30 76 12 149 30
internal_value=0.00233096 0.0245276 0.00526662 -0.0360664
internal_weight=10.6181 6.83391 4.96687 3.78419
internal_count=297 237 161 60
is_linear=0
shrinkage=0.05


Tree=56
num_leaves=6
num_cat=0
split_feature=6 8 0 6 3
split_gain=3.21425 2.63391 1.54987 0.0985183 0.0362585
threshold=0.51304850000000013 0.17483823978221746 0.44310000000000005 0.46355000000000007 0.0066000000000000008
decision_type=2 10 2 2 10
left_child=1 4 -3 -4 -1
right_child=-2 2 3 -5 -6
leaf_value=-0.059381119670380247 0.048760473924014398 0.046808930075661205 -0.020032668349079002 0 -0.029315799189909078
leaf_weight=1.6772536002099516 2.6840773252770305 1.7089664191007612 1.4718814641237261 1.2886741636320946 1.5354179441928861
leaf_count=25 203 7 6 37 19
internal_value=0.00227252 -0.0137452 0.0101785 -0.0115939 -0.0478402
internal_weight=10.3663 7.68219 4.46952 2.76056 3.21267
internal_count=297 94 50 43 44
is_linear=0
shrinkage=0.05


Tree=57
num_leaves=5
num_cat=0
split_feature=4 9 0 1
split_gain=3.17151 2.14431 3.0464 1.24743
threshold=0.32494050000000002 1.0000000180025095e-35 0.46550000000000008 1.0000000180025095e-35
decision_type=10 2 2 10
left_child=3 -2 -3 -1
right_child=1 2 -4 -5
leaf_value=-0.05828176135571235 0.06869355942915914 -0.029176120210146733 0.049266625659766444 0
leaf_weight=2.1139963939785962 1.7749710362404583 2.7134102489799261 2.0869612768292427 1.4781009890139101
leaf_count=30 76 12 149 30
internal_value=0.00214024 0.0231386 0.00421597 -0.0345287
internal_weight=10.1674 6.57534 4.80037 3.5921
internal_count=297 237 161 60
is_linear=0
shrinkage=0.05


Tree=58
num_leaves=5
num_cat=0
split_feature=4 9 0 1
split_gain=2.94842 2.01528 2.85003 1.68872
threshold=0.32494050000000002 1.0000000180025095e-35 0.46550000000000008 0.22500000000000003
decision_type=10 2 2 10
left_child=3 -2 -3 -1
right_child=1 2 -4 -5
leaf_value=-0.057157529790148702 0.06750199007296874 -0.027870899072840155 0.048944769653854039 0.012589860064672307
leaf_weight=2.3827432766556744 1.7191774081438778 2.7033983375877142 1.9985480550676582 1.1284437514841554
leaf_count=35 76 12 149 25
internal_value=0.00208688 0.0226001 0.00407745 -0.0336293
internal_weight=9.93231 6.42112 4.70195 3.51119
internal_count=297 237 161 60
is_linear=0
shrinkage=0.05


Tree=59
num_leaves=5
num_cat=0
split_feature=4 9 0 1
split_gain=2.74347 1.89407 2.66737 1.61471
threshold=0.32494050000000002 1.0000000180025095e-35 0.46550000000000008 0.22500000000000003
decision_type=10 2 2 10
left_child=3 -2 -3 -1
right_child=1 2 -4 -5
leaf_value=-0.05660663120842814 0.066326991017522249 -0.026629593789777858 0.048618566269019614 0.012060804625202932
leaf_weight=2.2889875881373887 1.6652975026518104 2.6928759478032589 1.9141680691391227 1.1235609780997036
leaf_count=35 76 12 149 25
internal_value=0.00206076 0.0220703 0.0039415 -0.0328751
internal_weight=9.68489 6.27234 4.60704 3.41255
internal_count=297 237 161 60
is_linear=0
shrinkage=0.05


Tree=60
num_leaves=4
num_cat=0
split_feature=6 9 3
split_gain=4.26575 1.52555 0.458727
threshold=0.51304850000000013 1.0000000180025095e-35 0.38375000000000009
decision_type=2 2 8
left_child=1 -1 -3
right_child=-2 2 -4
leaf_value=0.007541617365837347 0.047762248429199058 -0.022429336683907914 -0.05841031919360018
leaf_weight=1.7593783279880879 2.2075533308088779 2.4150044396519661 2.8438060451298952
leaf_count=24 202 36 32
internal_value=-0.0106288 -0.030111 -0.0435467
internal_weight=9.22574 7.01819 5.25881
internal_count=294 92 68
is_linear=0
shrinkage=0.05


Tree=61
num_leaves=4
num_cat=0
split_feature=6 9 4
split_gain=3.96205 1.40302 0.506379
threshold=0.51304850000000013 1.0000000180025095e-35 0.46225000000000005
decision_type=2 2 8
left_child=1 -1 -3
right_child=-2 2 -4
leaf_value=0.0071827498737685033 0.047502472560414247 -0.052856787912990456 -0.013510779487689426
leaf_weight=1.7598995557054875 2.1116199232637882 3.5616624243557453 1.6631721230223773
leaf_count=24 202 40 28
internal_value=-0.0102159 -0.0287952 -0.0417601
internal_weight=9.09635 6.98473 5.22483
internal_count=294 92 68
is_linear=0
shrinkage=0.05


Tree=62
num_leaves=5
num_cat=0
split_feature=6 3 3 0
split_gain=3.69769 0.638368 0.53263 0.238151
threshold=0.51304850000000013 0.013680999999999973 0.43690000000000007 0.45860000000000006
decision_type=2 10 10 2
left_child=1 -1 -3 -4
right_child=-2 2 3 -5
leaf_value=-0.056174776334615845 0.047237419239907812 0.00030458913618943898 -0.046148818413289459 -0.01248315474500288
leaf_weight=1.5975348744541404 2.0201713535934687 2.0550554227083921 1.4315492659807207 1.8102252269163726
leaf_count=30 202 22 6 34
internal_value=-0.00988133 -0.0277691 -0.0173933 -0.029782
internal_weight=8.91454 6.89436 5.29683 3.24177
internal_count=294 92 62 40
is_linear=0
shrinkage=0.05


Tree=63
num_leaves=4
num_cat=0
split_feature=4 3 0
split_gain=3.45457 1.18561 3.04708
threshold=0.46550000000000008 0.43690000000000007 0.34340000000000009
decision_type=10 8 2
left_child=1 2 -1
right_child=-2 -3 -4
leaf_value=-0.04639416688980616 0.046857596607298699 -0.046957406209451866 0.046653941731082137
leaf_weight=1.863781161606312 1.9395703161135314 3.4789683073759079 1.4785797744989393
leaf_count=40 212 16 26
internal_value=-0.00958714 -0.0268041 -0.00361991
internal_weight=8.7609 6.82133 3.34236
internal_count=294 82 66
is_linear=0
shrinkage=0.05


Tree=64
num_leaves=4
num_cat=0
split_feature=6 9 4
split_gain=3.2845 1.36422 0.455308
threshold=0.51304850000000013 1.0000000180025095e-35 0.46225000000000005
decision_type=2 2 8
left_child=1 -1 -3
right_child=-2 2 -4
leaf_value=0.0097058355720453324 0.046920479810076333 -0.050369063776982637 -0.012258265352163318
leaf_weight=1.7102462779730556 1.8618967384099958 3.3523472715169191 1.6268407534807918
leaf_count=24 202 40 28
internal_value=-0.00929758 -0.026142 -0.0393881
internal_weight=8.55133 6.68943 4.97919
internal_count=294 92 68
is_linear=0
shrinkage=0.05


Tree=65
num_leaves=5
num_cat=0
split_feature=4 9 0 1
split_gain=2.20853 1.85306 2.55474 0.768728
threshold=0.32494050000000002 1.0000000180025095e-35 0.46550000000000008 1.0000000180025095e-35
decision_type=10 2 2 10
left_child=3 -2 -3 -1
right_child=1 2 -4 -5
leaf_value=-0.055498867182732184 0.067160963086871181 -0.031476024076940889 0.047739540339869505 0
leaf_weight=1.6335277799516918 1.393500105012208 2.3281281739473347 1.6472845426760612 1.1398125793784855
leaf_count=28 66 11 156 25
internal_value=0.000387665 0.0196185 0.000487494 -0.0344882
internal_weight=8.14225 5.36891 3.97541 2.77334
internal_count=286 233 167 53
is_linear=0
shrinkage=0.05


Tree=66
num_leaves=10
num_cat=0
split_feature=11 11 3 12 4 0 4 4 4
split_gain=2.12433 1.63782 2.65737 1.06284 0.644303 0.435176 0.162335 0.102203 0.479964
threshold=29.500000000000004 268.00000000000006 1.0000000180025095e-35 1.0000000180025095e-35 0.36456650000000007 0.44125000000000009 0.46550000000000008 0.44385000000000002 0.46550000000000008
decision_type=2 2 10 2 10 2 10 10 10
left_child=5 2 -2 4 -4 -1 -6 -7 -9
right_child=1 -3 3 -5 6 7 -8 8 -10
leaf_value=-0.052531600443013853 -0.044091257294932511 -0.024460518430508508 0 -0.00020705373071319829 0.093646040342603237 -0.024369841159480817 0.040535541314536107 -0.037146663284741914 0.036037729309706834
leaf_weight=1.5062732622027399 0.70878529734909568 1.3981956080533562 0.3956613056361683 0.54471787996590126 1.4065260142087939 0.37648009881377198 0.91643020370975126 0.26436544768512249 0.437451446428895
leaf_count=22 14 41 6 19 6 6 132 2 38
internal_value=0.000350939 0.0188262 0.0355175 0.0550918 0.0675599 -0.0354464 0.0772947 -0.00490384 0.0010396
internal_weight=7.95489 5.37032 3.97212 3.26334 2.71862 2.58457 2.32296 1.0783 0.701817
internal_count=286 218 177 163 144 68 138 46 40
is_linear=0
shrinkage=0.05


Tree=67
num_leaves=9
num_cat=0
split_feature=11 11 3 12 4 6 3 4
split_gain=1.97364 1.51249 2.46715 1.00487 0.602859 0.516965 0.106225 0.0803144
threshold=29.500000000000004 268.00000000000006 1.0000000180025095e-35 1.0000000180025095e-35 0.36456650000000007 0.46020000000000005 0.080131999999999995 0.46550000000000008
decision_type=2 2 10 2 10 2 10 10
left_child=5 2 -2 4 -4 -1 -7 -6
right_child=1 -3 3 -5 7 6 -8 -9
leaf_value=-0.054031413608567586 -0.043454562708721167 -0.023287089760600434 0 -0.00019828980574792496 0.089675666330996329 -0.023855247947673942 0.0030106709433525866 0.04015983467656023
leaf_weight=1.4221535138785841 0.68527583032846484 1.400203921832144 0.3956613056361683 0.54476904915645707 1.3999375104904177 0.37520456360653021 0.72559372475370765 0.88059908337891091
leaf_count=21 14 41 6 19 6 6 41 132
internal_value=0.000220787 0.0180979 0.0343915 0.053269 0.065569 -0.0347298 -0.00320664 0.0751463
internal_weight=7.8294 5.30645 3.90624 3.22097 2.6762 2.52295 1.1008 2.28054
internal_count=286 218 177 163 144 68 47 138
is_linear=0
shrinkage=0.05


Tree=68
num_leaves=4
num_cat=0
split_feature=6 11 11
split_gain=1.91756 1.51574 1.27384
threshold=0.51304850000000013 30.500000000000004 96.500000000000014
decision_type=2 2 2
left_child=1 -1 -3
right_child=-2 2 -4
leaf_value=-0.045244944274242853 0.046410975792908593 0.030728841588859881 -0.025223875408467294
leaf_weight=2.1657776478677988 1.6806598957628009 2.1951323216781025 1.6712914761155842
leaf_count=32 204 26 24
internal_value=0.000124807 -0.0125024 0.0052561
internal_weight=7.71286 6.0322 3.86642
internal_count=286 82 50
is_linear=0
shrinkage=0.05


Tree=69
num_leaves=4
num_cat=0
split_feature=4 11 4
split_gain=1.83276 1.87303 0.31708
threshold=0.46550000000000008 30.500000000000004 0.42559750000000002
decision_type=10 2 10
left_child=1 -1 -3
right_child=-2 2 -4
leaf_value=-0.050739452666992396 0.046013491635440523 0.019932028082395064 -0.0065186224832099824
leaf_weight=1.9992007035762069 1.6364616621285675 2.1519623911008243 1.8223802745342252
leaf_count=30 213 35 8
internal_value=9.64041e-05 -0.0122099 0.00671394
internal_weight=7.61001 5.97354 3.97434
internal_count=286 73 43
is_linear=0
shrinkage=0.05


Tree=70
num_leaves=5
num_cat=0
split_feature=0 1 9 4
split_gain=2.23225 1.99606 0.670907 0.903709
threshold=0.34340000000000009 inf 1.0000000180025095e-35 0.46550000000000008
decision_type=2 8 2 8
left_child=-1 2 -2 -4
right_child=1 -3 3 -5
leaf_value=-0.04426814471646328 0.059388327698344116 -0.054823403849458135 0 0.047317129888384775
leaf_weight=1.4828206039965151 1.6199915655888615 0.62865878641605366 2.6276007052510977 1.5415219566784797
leaf_count=36 81 4 15 148
internal_value=0.0081094 0.0214718 0.0313963 0.0182119
internal_weight=7.90059 6.41777 5.78911 4.16912
internal_count=284 248 244 163
is_linear=0
shrinkage=0.05


Tree=71
num_leaves=8
num_cat=0
split_feature=3 11 6 11 0 8 11
split_gain=2.09459 1.78064 1.1774 1.03105 1.01264 0.313244 0.0701097
threshold=0.0066000000000000008 29.500000000000004 0.46020000000000005 142.50000000000003 0.34340000000000009 0.21790673973565441 38.500000000000007
decision_type=10 2 2 2 2 8 2
left_child=-1 2 -2 4 -3 -4 -6
right_child=1 3 5 -5 6 -7 -8
leaf_value=-0.050634981578882354 -0.052262556955924015 -0.025251231443744422 -0.0050804238628333722 0 0.033421998301348975 0.040717143289646797 0.071137593715134326
leaf_weight=1.1473451573401687 1.068395894020796 0.24998636543750796 0.43710874021053281 1.1912638740614054 1.1592471711337569 0.57710200734436523 1.881564022041857
leaf_count=25 14 3 9 40 28 38 127
internal_value=0.00787298 0.0194553 -0.016596 0.0372945 0.0513781 0.0178072 0.0598731
internal_weight=7.71201 6.56467 2.08261 4.48206 3.2908 1.01421 3.04081
internal_count=284 259 61 198 158 47 155
is_linear=0
shrinkage=0.05


Tree=72
num_leaves=7
num_cat=0
split_feature=0 1 11 6 11 11
split_gain=1.94759 1.7465 0.952959 1.63642 1.28881 0.0770707
threshold=0.34340000000000009 inf 29.500000000000004 0.46355000000000007 142.50000000000003 32.500000000000007
decision_type=2 8 2 2 2 2
left_child=-1 2 3 -2 5 -4
right_child=1 -3 4 -5 -6 -7
leaf_value=-0.043272591021284029 -0.058672914655425637 -0.052536124321113223 0.029729455781951665 0.042418146204734296 0 0.068481419801197513
leaf_weight=1.3708759285509584 0.65850862860679604 0.59878024458885182 1.0013950536958875 0.72944953199476004 1.1912638740614054 1.9900444732047615
leaf_count=36 3 4 15 45 40 141
internal_value=0.00757376 0.0201796 0.029666 -0.00290344 0.0414565 0.0585077
internal_weight=7.54032 6.16944 5.57066 1.38796 4.1827 2.99144
internal_count=284 248 244 48 196 156
is_linear=0
shrinkage=0.05


Tree=73
num_leaves=7
num_cat=0
split_feature=3 0 11 6 11 11
split_gain=1.84147 1.53873 0.875253 1.5331 1.22826 0.0884699
threshold=0.0066000000000000008 0.34340000000000009 29.500000000000004 0.46355000000000007 142.50000000000003 32.500000000000007
decision_type=10 2 2 2 2 2
left_child=-1 -2 3 -3 5 -4
right_child=1 2 4 -5 -6 -7
leaf_value=-0.049236639672369256 -0.038567264709395588 -0.057152229015929236 0.028553348671359658 0.041861588883438883 0 0.067747104559919127
leaf_weight=1.0740230549126861 0.85536732152104367 0.64522714912891366 0.99479976389557156 0.7041634782217443 1.1912638740614054 1.8955460912548003
leaf_count=25 16 3 15 45 40 140
internal_value=0.00731153 0.0183754 0.0287828 -0.00270999 0.0402059 0.0573354
internal_weight=7.36039 6.28637 5.431 1.34939 4.08161 2.89035
internal_count=284 259 243 48 195 155
is_linear=0
shrinkage=0.05


Tree=74
num_leaves=7
num_cat=0
split_feature=3 0 11 6 11 11
split_gain=1.72194 1.43782 0.806572 1.43728 1.17028 0.0958257
threshold=0.0066000000000000008 0.34340000000000009 29.500000000000004 0.46355000000000007 142.50000000000003 32.500000000000007
decision_type=10 2 2 2 2 2
left_child=-1 -2 3 -3 5 -4
right_child=1 2 4 -5 -6 -7
leaf_value=-0.048439111731688113 -0.037888941945403681 -0.055718654051337961 0.027424639185404099 0.04130533886203628 0 0.066788261205936963
leaf_weight=1.0396450944244859 0.82959642447531212 0.63165508210659005 0.98824094841256771 0.67992770252749324 1.1912638740614054 1.8297343405429272
leaf_count=25 16 3 15 45 40 140
internal_value=0.00705407 0.0178593 0.0280123 -0.00251608 0.0390343 0.0561102
internal_weight=7.19006 6.15042 5.32082 1.31158 4.00924 2.81798
internal_count=284 259 243 48 195 155
is_linear=0
shrinkage=0.05


Tree=75
num_leaves=4
num_cat=0
split_feature=4 9 11
split_gain=1.18371 1.025 0.414741
threshold=0.46550000000000008 1.0000000180025095e-35 72.500000000000014
decision_type=10 2 2
left_child=1 -1 -3
right_child=-2 2 -4
leaf_value=0.019697164001108772 0.041574680785219136 -0.039695891592942234 -0.0034925807989981857
leaf_weight=1.438682231120765 1.0462787984870372 2.4729012688621879 1.6465661842375992
leaf_count=29 207 35 12
internal_value=-0.00376912 -0.0137723 -0.026836
internal_weight=6.60443 5.55815 4.11947
internal_count=283 76 47
is_linear=0
shrinkage=0.05


Tree=76
num_leaves=6
num_cat=0
split_feature=6 3 4 9 0
split_gain=1.33212 1.45924 1.51488 0.698117 0.890317
threshold=0.38375000000000009 0.43690000000000007 0.43905000000000005 1.0000000180025095e-35 0.46550000000000008
decision_type=2 8 10 2 2
left_child=-1 -2 -3 -4 -5
right_child=1 2 3 4 -6
leaf_value=-0.046842790568832088 0.05564607277152829 -0.063362214107875958 0.050371930685123668 -0.022564261096202465 0.038516469786310938
leaf_weight=1.3297449480742214 1.1208512475714085 0.81871759891509999 0.67932810168713365 1.8215581029653551 0.74895064905285824
leaf_count=36 29 4 64 8 142
internal_value=-0.00357347 0.00724465 -0.00590509 0.00853663 -0.00211943
internal_weight=6.51915 5.18941 4.06855 3.24984 2.57051
internal_count=283 247 218 214 150
is_linear=0
shrinkage=0.05


Tree=77
num_leaves=6
num_cat=0
split_feature=6 3 4 9 0
split_gain=1.26084 1.37156 1.41369 0.655177 0.83012
threshold=0.38375000000000009 0.43690000000000007 0.43905000000000005 1.0000000180025095e-35 0.46550000000000008
decision_type=2 8 10 2 2
left_child=-1 -2 -3 -4 -5
right_child=1 2 3 4 -6
leaf_value=-0.046415109516262001 0.054874613901673287 -0.061714244183791817 0.049476254647167317 -0.021615009726056563 0.038103248686951197
leaf_weight=1.2771537266671655 1.0821689015720037 0.80165535956621203 0.65936438203789327 1.8111386448144915 0.72101408895105112
leaf_count=36 29 4 64 8 142
internal_value=-0.0034328 0.00710496 -0.00564365 0.00836834 -0.00190945
internal_weight=6.3525 5.07534 3.99317 3.19152 2.53215
internal_count=283 247 218 214 150
is_linear=0
shrinkage=0.05


Tree=78
num_leaves=6
num_cat=0
split_feature=6 3 4 9 0
split_gain=1.19345 1.28919 1.32069 0.615016 0.77417
threshold=0.38375000000000009 0.43690000000000007 0.43905000000000005 1.0000000180025095e-35 0.46550000000000008
decision_type=2 8 10 2 2
left_child=-1 -2 -3 -4 -5
right_child=1 2 3 4 -6
leaf_value=-0.045986021447349069 0.054110161364833334 -0.060165185835978165 0.048597791257724274 -0.020705253523815803 0.037683223874299919
leaf_weight=1.2268274519592521 1.044944943860173 0.78419958800077472 0.64002007478848133 1.8008426725864413 0.69438994675874699
leaf_count=36 29 4 64 8 142
internal_value=-0.00329337 0.00696948 -0.00538803 0.00820371 -0.00170399
internal_weight=6.19122 4.9644 3.91945 3.13525 2.49523
internal_count=283 247 218 214 150
is_linear=0
shrinkage=0.05


Tree=79
num_leaves=5
num_cat=0
split_feature=6 0 6 11
split_gain=1.12971 0.6013 0.802959 0.880369
threshold=0.38375000000000009 0.43690000000000007 0.51304850000000013 53.500000000000007
decision_type=2 2 2 2
left_child=-1 -2 3 -3
right_child=1 2 -4 -5
leaf_value=-0.04555518048476509 0.053589810601535538 -0.036663230914004884 0.040194016184702475 0.01126447171806356
leaf_weight=1.1786767169833181 0.50413917936384667 1.6629551993682983 0.88875385932624329 1.8007326936349271
leaf_count=36 5 22 197 23
internal_value=-0.00315513 0.00683794 0 -0.0107262
internal_weight=6.03526 4.85658 4.35244 3.46369
internal_count=283 247 242 45
is_linear=0
shrinkage=0.05


Tree=80
num_leaves=5
num_cat=0
split_feature=6 3 4 11
split_gain=1.16897 1.05438 1.59746 0.369538
threshold=0.51304850000000013 0.44125000000000009 0.36456650000000007 48.500000000000007
decision_type=2 8 10 2
left_child=1 2 -1 -3
right_child=-2 3 -4 -5
leaf_value=-0.030344606460400804 0.045797106517935768 -0.0039274260269625055 0.044857860264621852 -0.050984408096143158
leaf_weight=1.1028548981994393 1.1087079341523347 0.98466682434082065 1.504914855584502 1.2822867170907555
leaf_count=40 198 19 8 21
internal_value=0.00100489 -0.00889339 0.0112613 -0.0336868
internal_weight=5.98343 4.87472 2.60777 2.26695
internal_count=286 88 48 40
is_linear=0
shrinkage=0.05


Tree=81
num_leaves=5
num_cat=0
split_feature=6 3 4 11
split_gain=1.10367 0.963685 1.46098 0.334372
threshold=0.51304850000000013 0.44125000000000009 0.36456650000000007 48.500000000000007
decision_type=2 8 10 2
left_child=1 2 -1 -3
right_child=-2 3 -4 -5
leaf_value=-0.029508767005443848 0.045370054892734914 -0.0037485118941559532 0.042736483254291302 -0.048903456884390406
leaf_weight=1.0807918105274441 1.0652319446671752 0.98484924389049444 1.5055785868316887 1.2744656321592627
leaf_count=40 198 19 8 21
internal_value=0.000891215 -0.00859529 0.0107108 -0.0323326
internal_weight=5.91092 4.84569 2.58637 2.25931
internal_count=286 88 48 40
is_linear=0
shrinkage=0.05


Tree=82
num_leaves=5
num_cat=0
split_feature=6 3 4 11
split_gain=1.04201 0.880922 1.3367 0.302311
threshold=0.51304850000000013 0.44125000000000009 0.36456650000000007 48.500000000000007
decision_type=2 8 10 2
left_child=1 2 -1 -3
right_child=-2 3 -4 -5
leaf_value=-0.028673925244085692 0.044936344008834526 -0.0035777740228139388 0.040736693430671302 -0.046910815052014547
leaf_weight=1.0600933562964203 1.023756152950227 0.98502343380823765 1.5054236240684984 1.2666221573017535
leaf_count=40 198 19 8 21
internal_value=0.000781257 -0.00830888 0.0101801 -0.0310384
internal_weight=5.84092 4.81716 2.56552 2.25165
internal_count=286 88 48 40
is_linear=0
shrinkage=0.05


Tree=83
num_leaves=5
num_cat=0
split_feature=6 3 8 11
split_gain=0.983778 0.805355 1.2234 0.273038
threshold=0.51304850000000013 0.44125000000000009 0.17483823978221746 48.500000000000007
decision_type=2 8 10 2
left_child=1 2 -1 -3
right_child=-2 3 -4 -5
leaf_value=-0.027841670994414328 0.044496194085098001 -0.0034148348143200505 0.038848358060682008 -0.044999135927170419
leaf_weight=1.040684884414077 0.98418335313908745 0.98518980154767666 1.5045497361570594 1.2588597163558004
leaf_count=40 198 19 8 21
internal_value=0.000674955 -0.00803343 0.00966854 -0.0298002
internal_weight=5.77347 4.78928 2.54523 2.24405
internal_count=286 88 48 40
is_linear=0
shrinkage=0.05


Tree=84
num_leaves=5
num_cat=0
split_feature=6 3 4 11
split_gain=0.92879 0.736332 1.12003 0.246284
threshold=0.51304850000000013 0.44125000000000009 0.36456650000000007 48.500000000000007
decision_type=2 8 10 2
left_child=1 2 -1 -3
right_child=-2 3 -4 -5
leaf_value=-0.027013575253249957 0.044049816568016958 -0.0032593378265314381 0.037062536295693942 -0.043162354963409477
leaf_weight=1.0224944539368155 0.94642151123844076 0.98534872056916389 1.5030476227402685 1.2512621898204086
leaf_count=40 198 19 8 21
internal_value=0.000572244 -0.00776832 0.00917541 -0.0286146
internal_weight=5.70857 4.76215 2.52554 2.23661
internal_count=286 88 48 40
is_linear=0
shrinkage=0.05


Tree=85
num_leaves=4
num_cat=0
split_feature=3 9 4
split_gain=1.06781 0.949942 1.0856
threshold=0.0066000000000000008 1.0000000180025095e-35 0.46550000000000008
decision_type=10 2 8
left_child=-1 -2 -3
right_child=1 2 -4
leaf_value=-0.044912873253914201 0.050178305884860414 -0.016830603557211932 0.042864427965510932
leaf_weight=0.84294120594859112 1.1643324661999939 2.6349634416401391 0.95546165178529907
leaf_count=29 79 26 148
internal_value=0.00268574 0.0129054 0
internal_weight=5.5977 4.75476 3.59043
internal_count=282 253 174
is_linear=0
shrinkage=0.05


Tree=86
num_leaves=3
num_cat=0
split_feature=3 6
split_gain=1.00227 0.678273
threshold=0.0066000000000000008 0.46590000000000004
decision_type=10 2
left_child=-1 -2
right_child=1 -3
leaf_value=-0.044189847538406851 0 0.043332043641842066
leaf_weight=0.81621505599468935 3.4654588438570499 1.204705578042194
leaf_count=29 28 225
internal_value=0.00259379 0.0125734
internal_weight=5.48638 4.67016
internal_count=282 253
is_linear=0
shrinkage=0.05


Tree=87
num_leaves=5
num_cat=0
split_feature=3 9 4 4
split_gain=0.941351 0.868414 0.992204 0.0310972
threshold=1.0000000180025095e-35 1.0000000180025095e-35 0.46550000000000008 0.36456650000000007
decision_type=10 2 8 8
left_child=-1 3 -3 -2
right_child=1 2 -4 -5
leaf_value=-0.045284137794003435 0 -0.016346412359078185 0.042108256803235572 0.053021266077171725
leaf_weight=0.73695918265730131 0.2160542048513886 2.6329244449734692 0.88711507222615171 0.93865918670780968
leaf_count=26 15 27 148 66
internal_value=0.00248713 0.011856 0 0.0475942
internal_weight=5.41171 4.67475 3.52004 1.15471
internal_count=282 256 175 81
is_linear=0
shrinkage=0.05


Tree=88
num_leaves=5
num_cat=0
split_feature=3 9 4 4
split_gain=0.887334 0.818032 0.928288 0.0399284
threshold=1.0000000180025095e-35 1.0000000180025095e-35 0.46550000000000008 0.23830000000000007
decision_type=10 2 8 8
left_child=-1 3 -3 -2
right_child=1 2 -4 -5
leaf_value=-0.044647119469721108 0 -0.015641850187518205 0.041665528636071592 0.052121031987355293
leaf_weight=0.71215868089348067 0.20313877379521694 2.6188166979700331 0.85362794576212753 0.92207796406000864
leaf_count=26 13 27 148 68
internal_value=0.00244249 0.011596 0 0.046741
internal_weight=5.30982 4.59766 3.47244 1.12522
internal_count=282 256 175 81
is_linear=0
shrinkage=0.05


Tree=89
num_leaves=5
num_cat=0
split_feature=3 9 4 4
split_gain=0.836344 0.770574 0.868672 0.0359378
threshold=1.0000000180025095e-35 1.0000000180025095e-35 0.46550000000000008 0.23830000000000007
decision_type=10 2 8 8
left_child=-1 3 -3 -2
right_child=1 2 -4 -5
leaf_value=-0.044013241272817166 0 -0.01496526457007092 0.041218130724172616 0.051277899440033636
leaf_weight=0.68834127578884352 0.20313877379521694 2.605229645967484 0.8216472822241484 0.89276782819069933
leaf_count=26 13 27 148 68
internal_value=0.00239305 0.0113367 0 0.0459092
internal_weight=5.21112 4.52278 3.42688 1.09591
internal_count=282 256 175 81
is_linear=0
shrinkage=0.05


Tree=90
num_leaves=8
num_cat=0
split_feature=11 3 11 11 6 3 6
split_gain=1.1044 1.47219 1.08965 1.11157 0.836484 0.344572 0.14441
threshold=38.500000000000007 0.44125000000000009 142.50000000000003 50.000000000000007 0.44555000000000006 0.0066000000000000008 0.46590000000000004
decision_type=2 10 2 2 2 10 2
left_child=4 -2 3 -3 -1 -6 -7
right_child=1 2 -4 -5 5 6 -8
leaf_value=-0.055177682433834002 0.062140396059345737 -0.030850244975175668 -0.037033582799199688 0.067578562460454156 -0.035070033967561969 0 0.035193220510827128
leaf_weight=1.0632678801193836 1.1851721961284059 0.30784950940869782 1.1502500430215148 0.65107932558748871 0.28771112114191033 0.38614289462566376 0.50252747954800725
leaf_count=23 27 27 47 80 2 2 71
internal_value=0.000615389 0.0196605 -0.00367858 0.0313285 -0.0249043 0.000720044 0.0197397
internal_weight=5.534 3.29435 2.10918 0.958929 2.23965 1.17638 0.88867
internal_count=279 181 154 107 98 75 73
is_linear=0
shrinkage=0.05


Tree=91
num_leaves=7
num_cat=0
split_feature=11 4 6 0 1 6
split_gain=1.02294 1.07183 0.787674 0.608054 0.273166 0.132723
threshold=38.500000000000007 0.44385000000000002 0.44555000000000006 0.46550000000000008 0.75000000000000011 0.46590000000000004
decision_type=2 10 2 2 8 2
left_child=2 -2 -1 -3 5 -4
right_child=1 3 4 -5 -6 -7
leaf_value=-0.054330013309748293 0.047980643642820162 -0.026654347942447795 0 0.033183202411022232 -0.029818253662795502 0.034077821874023105
leaf_weight=1.028314642608166 1.5552549404092135 1.2261439263820646 0.38614289462566342 0.48489492235239584 0.30326609779149305 0.46523531852290034
leaf_count=23 26 6 2 149 4 69
internal_value=0.000491695 0.0188579 -0.0244213 -0.00604008 0.000437182 0.0184713
internal_weight=5.44925 3.26629 2.18296 1.71104 1.15464 0.851378
internal_count=279 181 98 155 75 71
is_linear=0
shrinkage=0.05


Tree=92
num_leaves=8
num_cat=0
split_feature=11 3 11 11 6 3 6
split_gain=0.949943 1.25513 0.997377 1.03946 0.742873 0.304124 0.13432
threshold=38.500000000000007 0.44125000000000009 142.50000000000003 50.000000000000007 0.44555000000000006 0.0066000000000000008 0.46590000000000004
decision_type=2 10 2 2 2 10 2
left_child=4 -2 3 -3 -1 -6 -7
right_child=1 2 -4 -5 5 6 -8
leaf_value=-0.053498127526871102 0.057392570008061444 -0.029355495345357963 -0.035806615884494845 0.06643376829173675 -0.03361531558956124 0 0.034201340277917797
leaf_weight=0.99450544919818673 1.1781914049061017 0.30518806236796114 1.1283870229963211 0.62414464703761041 0.27722699195146538 0.38614289462566376 0.47268354287371039
leaf_count=23 27 27 47 80 2 2 71
internal_value=0.000411715 0.0181622 -0.00360159 0.0303237 -0.0239119 0.000175681 0.0186663
internal_weight=5.36647 3.23591 2.05772 0.929333 2.13056 1.13605 0.858826
internal_count=279 181 154 107 98 75 73
is_linear=0
shrinkage=0.05


Tree=93
num_leaves=8
num_cat=0
split_feature=11 3 11 11 6 3 6
split_gain=0.879946 1.14557 0.913307 0.979655 0.699971 0.284552 0.129227
threshold=38.500000000000007 0.44125000000000009 142.50000000000003 50.000000000000007 0.44555000000000006 0.0066000000000000008 0.46590000000000004
decision_type=2 10 2 2 2 10 2
left_child=4 -2 3 -3 -1 -6 -7
right_child=1 2 -4 -5 5 6 -8
leaf_value=-0.052681466626750231 0.054898091509729852 -0.028214668236633829 -0.034424070213611949 0.064916402459069988 -0.032863816869187656 0 0.033680058528258963
leaf_weight=0.96180882398039136 1.1747741024009886 0.30568197648972306 1.1192741922568528 0.60950913047417998 0.27181325107812859 0.38614289462566376 0.45792381651699543
leaf_count=23 27 27 47 80 2 2 71
internal_value=0.000291103 0.0174127 -0.00344807 0.0291695 -0.0234445 0 0.0181154
internal_weight=5.28693 3.20924 2.03447 0.915191 2.07769 1.11588 0.844067
internal_count=279 181 154 107 98 75 73
is_linear=0
shrinkage=0.05


Tree=94
num_leaves=8
num_cat=0
split_feature=11 3 11 11 6 3 6
split_gain=0.815093 1.04539 0.835997 0.92337 0.659714 0.266241 0.124275
threshold=38.500000000000007 0.44125000000000009 142.50000000000003 50.000000000000007 0.44555000000000006 0.0066000000000000008 0.46590000000000004
decision_type=2 10 2 2 2 10 2
left_child=4 -2 3 -3 -1 -6 -7
right_child=1 2 -4 -5 5 6 -8
leaf_value=-0.051879427987001583 0.052498744692199728 -0.027121267819740003 -0.033083068988314167 0.063431750787615829 -0.032130096537462828 0 0.033158104801100902
leaf_weight=0.93019512295722995 1.1716932088602336 0.30612521269358728 1.1106886668130753 0.59529085457324982 0.26653791218996026 0.38614289462566376 0.44380983477458358
leaf_count=23 27 27 47 80 2 2 71
internal_value=0.00017286 0.0166874 -0.00329738 0.0280492 -0.0229841 0 0.0175739
internal_weight=5.21048 3.1838 2.0121 0.901416 2.02669 1.09649 0.829953
internal_count=279 181 154 107 98 75 73
is_linear=0
shrinkage=0.05


Tree=95
num_leaves=4
num_cat=0
split_feature=0 4 4
split_gain=1.05223 0.555236 0.948042
threshold=0.34340000000000009 0.46225000000000005 0.46550000000000008
decision_type=2 8 10
left_child=-1 -2 -3
right_child=1 2 -4
leaf_value=-0.036966992232462782 0.037892692824333496 -0.029700268983882207 0.039993682817543993
leaf_weight=0.7404636489227413 2.4391371719539165 0.99737085122615077 0.77659418061375618
leaf_count=39 28 13 209
internal_value=0.0123895 0.0228793 0
internal_weight=4.95357 4.2131 1.77397
internal_count=289 250 222
is_linear=0
shrinkage=0.05


Tree=96
num_leaves=4
num_cat=0
split_feature=0 4 4
split_gain=0.97774 0.496465 0.884746
threshold=0.34340000000000009 0.46225000000000005 0.46550000000000008
decision_type=2 8 10
left_child=-1 -2 -3
right_child=1 2 -4
leaf_value=-0.03640421442026473 0.036108664622905212 -0.028457241908836913 0.039554923844894403
leaf_weight=0.71647352818399657 2.4366683328989893 0.99336262606084325 0.7477897732751444
leaf_count=39 28 13 209
internal_value=0.0118721 0.0219775 0
internal_weight=4.89429 4.17782 1.74115
internal_count=289 250 222
is_linear=0
shrinkage=0.05


Tree=97
num_leaves=4
num_cat=0
split_feature=0 4 4
split_gain=0.908684 0.444045 0.825802
threshold=0.34340000000000009 0.46225000000000005 0.46550000000000008
decision_type=2 8 10
left_child=-1 -2 -3
right_child=1 2 -4
leaf_value=-0.035833988231328856 0.034415825430410184 -0.027260756563889169 0.039110483943468
leaf_weight=0.69365521986037482 2.4336907065007836 0.98960120789706685 0.72030842211097479
leaf_count=39 28 13 209
internal_value=0.0113704 0.021109 0
internal_weight=4.83726 4.1436 1.70991
internal_count=289 250 222
is_linear=0
shrinkage=0.05


Tree=98
num_leaves=5
num_cat=0
split_feature=0 12 4 4
split_gain=0.844638 0.433499 1.1084 0.689395
threshold=0.34340000000000009 1.0000000180025095e-35 0.46225000000000005 0.46550000000000008
decision_type=2 2 8 10
left_child=-1 2 -2 -4
right_child=1 -3 3 -5
leaf_value=-0.035256644575894606 0.058608078341907413 -0.003707837643436818 -0.026107400647691844 0.037432237530212936
leaf_weight=0.67195550817996252 1.521524185780436 1.0192089271731672 0.95086693018674828 0.61884140491019934
leaf_count=39 16 33 11 190
internal_value=0.0108841 0.0202727 0.0296145 0
internal_weight=4.7824 4.11044 3.09123 1.56971
internal_count=289 250 217 201
is_linear=0
shrinkage=0.05


Tree=99
num_leaves=5
num_cat=0
split_feature=0 12 4 4
split_gain=0.785619 0.405721 1.01584 0.642854
threshold=0.34340000000000009 1.0000000180025095e-35 0.46225000000000005 0.46550000000000008
decision_type=2 2 8 10
left_child=-1 2 -2 -4
right_child=1 -3 3 -5
leaf_value=-0.034672566263781193 0.056543866165964407 -0.0035408591277851552 -0.024996347192558093 0.036955159380054878
leaf_weight=0.65132325375452627 1.5023590796627107 1.0186397847719488 0.9479951844550667 0.59732774121221155
leaf_count=39 16 33 11 190
internal_value=0.010413 0.0194936 0.0286488 0
internal_weight=4.71765 4.06632 3.04768 1.54532
internal_count=289 250 217 201
is_linear=0
shrinkage=0.05


end of trees

feature_importances:
max_score=81
text_gnn_diff=75
text_cnn_diff=68
url_length=47
text_score=37
has_https=20
cnn_score=18
score_std=6
gnn_score=4
suspicious_keywords_count=4
cnn_gnn_diff=1
min_score=1
domain_length=1

parameters:
[boosting: gbdt]
[objective: binary]
[metric: binary_logloss]
[tree_learner: serial]
[device_type: cpu]
[data_sample_strategy: bagging]
[data: ]
[valid: ]
[num_iterations: 100]
[learning_rate: 0.05]
[num_leaves: 31]
[num_threads: 0]
[seed: 42]
[deterministic: 0]
[force_col_wise: 0]
[force_row_wise: 0]
[histogram_pool_size: -1]
[max_depth: -1]
[min_data_in_leaf: 20]
[min_sum_hessian_in_leaf: 0.001]
[bagging_fraction: 0.8]
[pos_bagging_fraction: 1]
[neg_bagging_fraction: 1]
[bagging_freq: 5]
[bagging_seed: 400]
[bagging_by_query: 0]
[feature_fraction: 0.9]
[feature_fraction_bynode: 1]
[feature_fraction_seed: 30056]
[extra_trees: 0]
[extra_seed: 12879]
[early_stopping_round: 0]
[early_stopping_min_delta: 0]
[first_metric_only: 0]
[max_delta_step: 0]
[lambda_l1: 0.1]
[lambda_l2: 0.1]
[linear_lambda: 0]
[min_gain_to_split: 0]
[drop_rate: 0.1]
[max_drop: 50]
[skip_drop: 0.5]
[xgboost_dart_mode: 0]
[uniform_drop: 0]
[drop_seed: 17869]
[top_rate: 0.2]
[other_rate: 0.1]
[min_data_per_group: 100]
[max_cat_threshold: 32]
[cat_l2: 10]
[cat_smooth: 10]
[max_cat_to_onehot: 4]
[top_k: 20]
[monotone_constraints: ]
[monotone_constraints_method: basic]
[monotone_penalty: 0]
[feature_contri: ]
[forcedsplits_filename: ]
[refit_decay_rate: 0.9]
[cegb_tradeoff: 1]
[cegb_penalty_split: 0]
[cegb_penalty_feature_lazy: ]
[cegb_penalty_feature_coupled: ]
[path_smooth: 0]
[interaction_constraints: ]
[verbosity: -1]
[saved_feature_importance_type: 0]
[use_quantized_grad: 0]
[num_grad_quant_bins: 4]
[quant_train_renew_leaf: 0]
[stochastic_rounding: 1]
[linear_tree: 0]
[max_bin: 255]
[max_bin_by_feature: ]
[min_data_in_bin: 3]
[bin_construct_sample_cnt: 200000]
[data_random_seed: 175]
[is_enable_sparse: 1]
[enable_bundle: 1]
[use_missing: 1]
[zero_as_missing: 0]
[feature_pre_filter: 1]
[pre_partition: 0]
[two_round: 0]
[header: 0]
[label_column: ]
[weight_column: ]
[group_column: ]
[ignore_column: ]
[categorical_feature: ]
[forcedbins_filename: ]
[precise_float_parser: 0]
[parser_config_file: ]
[objective_seed: 16083]
[num_class: 1]
[is_unbalance: 0]
[scale_pos_weight: 1]
[sigmoid: 1]
[boost_from_average: 1]
[reg_sqrt: 0]
[alpha: 0.9]
[fair_c: 1]
[poisson_max_delta_step: 0.7]
[tweedie_variance_power: 1.5]
[lambdarank_truncation_level: 30]
[lambdarank_norm: 1]
[label_gain: ]
[lambdarank_position_bias_regularization: 0]
[eval_at: ]
[multi_error_top_k: 1]
[auc_mu_weights: ]
[num_machines: 1]
[local_listen_port: 12400]
[time_out: 120]
[machine_list_filename: ]
[machines: ]
[gpu_platform_id: -1]
[gpu_device_id: -1]
[gpu_use_dp: 0]
[num_gpu: 1]

end of parameters

pandas_categorical:null
